<?xml version="1.0" encoding="UTF-8"?>
<BIF VERSION="0.3"  xmlns="http://www.cs.ubc.ca/labs/lci/fopi/ve/XMLBIFv0_3"
	xmlns:xsi="http://www.w3.org/2001/XMLSchema-instance"
	xsi:schemaLocation="http://www.cs.ubc.ca/labs/lci/fopi/ve/XMLBIFv0_3 http://www.cs.ubc.ca/labs/lci/fopi/ve/XMLBIFv0_3/XMLBIFv0_3.xsd">
<NETWORK>
<NAME>Untitled</NAME>
<PROPERTY>detailed = </PROPERTY>
<PROPERTY>short = </PROPERTY>

<VARIABLE TYPE="nature">
	<NAME>visit to Asia?</NAME>
	<OUTCOME>T</OUTCOME>
	<OUTCOME>F</OUTCOME>
	<PROPERTY>position = (7030.67236328125, 5090.4462890625)</PROPERTY>
</VARIABLE>

<VARIABLE TYPE="nature">
	<NAME>tuberculosis?</NAME>
	<OUTCOME>T</OUTCOME>
	<OUTCOME>F</OUTCOME>
	<PROPERTY>position = (6935.4130859375, 5168.2275390625)</PROPERTY>
</VARIABLE>

<VARIABLE TYPE="nature">
	<NAME>smoking?</NAME>
	<OUTCOME>T</OUTCOME>
	<OUTCOME>F</OUTCOME>
	<PROPERTY>position = (7269.2587890625, 5092.19482421875)</PROPERTY>
</VARIABLE>

<VARIABLE TYPE="nature">
	<NAME>lung cancer?</NAME>
	<OUTCOME>T</OUTCOME>
	<OUTCOME>F</OUTCOME>
	<PROPERTY>position = (7170.50341796875, 5165.60546875)</PROPERTY>
</VARIABLE>

<VARIABLE TYPE="nature">
	<NAME>bronchitis?</NAME>
	<OUTCOME>T</OUTCOME>
	<OUTCOME>F</OUTCOME>
	<PROPERTY>position = (7356.65283203125, 5165.60546875)</PROPERTY>
</VARIABLE>

<VARIABLE TYPE="nature">
	<NAME>either tuberculosis or lung cancer&gt;</NAME>
	<OUTCOME>T</OUTCOME>
	<OUTCOME>F</OUTCOME>
	<PROPERTY>position = (7048.1513671875, 5240.7646484375)</PROPERTY>
</VARIABLE>

<VARIABLE TYPE="nature">
	<NAME>dyspnoea?</NAME>
	<OUTCOME>T</OUTCOME>
	<OUTCOME>F</OUTCOME>
	<PROPERTY>position = (7222.06591796875, 5293.20068359375)</PROPERTY>
</VARIABLE>

<VARIABLE TYPE="nature">
	<NAME>positive x-ray?</NAME>
	<OUTCOME>T</OUTCOME>
	<OUTCOME>F</OUTCOME>
	<PROPERTY>position = (6887.3466796875, 5311.5537109375)</PROPERTY>
</VARIABLE>

<DEFINITION>
	<FOR>visit to Asia?</FOR>
	<TABLE>0.01 0.99</TABLE>
</DEFINITION>

<DEFINITION>
	<FOR>tuberculosis?</FOR>
	<GIVEN>visit to Asia?</GIVEN>
	<TABLE>0.05 0.95 0.01 0.99</TABLE>
</DEFINITION>

<DEFINITION>
	<FOR>smoking?</FOR>
	<TABLE>0.5 0.5</TABLE>
</DEFINITION>

<DEFINITION>
	<FOR>lung cancer?</FOR>
	<GIVEN>smoking?</GIVEN>
	<TABLE>0.1 0.9 0.01 0.99</TABLE>
</DEFINITION>

<DEFINITION>
	<FOR>bronchitis?</FOR>
	<GIVEN>smoking?</GIVEN>
	<TABLE>0.6 0.4 0.3 0.7</TABLE>
</DEFINITION>

<DEFINITION>
	<FOR>either tuberculosis or lung cancer&gt;</FOR>
	<GIVEN>tuberculosis?</GIVEN>
	<GIVEN>lung cancer?</GIVEN>
	<TABLE>1.0 0.0 1.0 0.0 1.0 0.0 0.0 1.0</TABLE>
</DEFINITION>

<DEFINITION>
	<FOR>dyspnoea?</FOR>
	<GIVEN>bronchitis?</GIVEN>
	<GIVEN>either tuberculosis or lung cancer&gt;</GIVEN>
	<TABLE>0.9 0.1 0.8 0.2 0.7 0.3 0.1 0.9</TABLE>
</DEFINITION>

<DEFINITION>
	<FOR>positive x-ray?</FOR>
	<GIVEN>either tuberculosis or lung cancer&gt;</GIVEN>
	<TABLE>0.98 0.02 0.05 0.95</TABLE>
</DEFINITION>
</NETWORK>
</BIF>
